// ************************************************
// Name: Nolan Anderson
// Course: CPE 381
// Assignment: Project 1 Phase 2
// Due date: 19 March 2021
// File: filter_22050.h
// Usage: Holds the filter values for the first filter design.
// ************************************************

#include "tmwtypes.h"
const int BL1 = 81;
const real64_T B1[81] = {
-9.94541992346482e-05,	-2.68635189746757e-05,	0.000136315176643181,	0.000524098914580912,	
0.00122009235815848,	0.00227072716513794,	0.00365087116690627,	0.00523673284432945	,
0.00679785956001373,	0.00801684709889088,	0.00854103689961455,	0.00806105728180006	,
0.00640262951251740,	0.00360931358442519,	-8.51125040184857e-06,	-0.00388090525431541,	
-0.00725387728508900,	-0.00932997960726480,	-0.00945171340423542,	-0.00729012062201453,	
-0.00299150715319102,	0.00276333076664018,	0.00882002100660806,	0.0137388636860120	,
0.0160880134221465,	0.0147893336927780,	0.00944389747268605,	0.000556044426517262	,
-0.0104091935551674,	-0.0211749500360138,	-0.0290012981764615,	-0.0311825036363979,	
-0.0256036365872951,	-0.0112420342933967,	0.0114959546926391,	0.0406888653798528	,
0.0731014857957211,	0.104653256368170,	0.131075228898596,	0.148634764542650	,
0.154788499012829,	0.148634764542650,	0.131075228898596,	0.104653256368170	,
0.0731014857957211,	0.0406888653798528,	0.0114959546926391,	-0.0112420342933967	,
-0.0256036365872951,	-0.0311825036363979,	-0.0290012981764615,	-0.0211749500360138	,
-0.0104091935551674,	0.000556044426517262 , 0.00944389747268605,	0.0147893336927780	,
0.0160880134221465,	0.0137388636860120,	0.00882002100660806,	0.00276333076664018	,
-0.00299150715319102,	-0.00729012062201453,	-0.00945171340423542,	-0.00932997960726480,	
-0.00725387728508900,	-0.00388090525431541,	-8.51125040184857e-06,	0.00360931358442519	,
0.00640262951251740,	0.00806105728180006,	0.00854103689961455,	0.00801684709889088,	0.00679785956001373	,
0.00523673284432945,	0.00365087116690627,	0.00227072716513794,	0.00122009235815848,	0.000524098914580912	,
0.000136315176643181,	-2.68635189746757e-05,	-9.94541992346482e-05
};
